gru/gru_cell/kernel:0
(1, 240)
[[-1.56323731e-01 -7.99273789e-01 -6.55594468e-01 -2.40756676e-01
  -6.65507376e-01 -4.80024844e-01 -4.73018736e-01 -4.38285410e-01
  -5.46209037e-01 -5.97412586e-01 -6.74292207e-01 -3.34713936e-01
  -5.52328646e-01 -9.08169568e-01 -3.79964203e-01 -6.14844143e-01
  -7.79928386e-01 -5.65209568e-01 -6.77033663e-01 -7.73558259e-01
  -4.27820235e-01 -6.32802844e-01 -5.20494223e-01 -6.74874008e-01
  -4.80202705e-01 -8.63808036e-01 -4.40027237e-01 -3.73575717e-01
  -7.13637412e-01 -6.08339012e-01 -4.55386102e-01 -6.47948205e-01
  -7.68762350e-01 -6.10168397e-01 -7.07234025e-01 -6.32008493e-01
  -4.82027471e-01 -5.65755367e-01 -5.65580249e-01 -6.68175042e-01
  -4.59976196e-02 -7.33140945e-01 -8.36558223e-01 -2.94424057e-01
  -6.71953678e-01 -4.73545760e-01 -7.71701694e-01 -5.01654685e-01
  -4.96250629e-01 -6.43934309e-01 -7.34711349e-01 -4.45078045e-01
  -7.81316638e-01 -6.50825024e-01 -4.75438714e-01 -3.55649352e-01
  -5.17728925e-01 -3.89686286e-01 -5.29362917e-01 -6.81149840e-01
  -6.86761856e-01 -6.29570305e-01 -4.75990742e-01 -5.69211245e-01
  -6.54645622e-01 -4.50734377e-01 -6.47606254e-01 -6.21768475e-01
  -5.76303542e-01 -6.65231645e-01 -6.27913177e-01 -4.34825957e-01
  -5.91750205e-01 -6.93718851e-01 -5.53968012e-01 -5.49376905e-01
  -7.94852674e-01 -7.39105403e-01 -7.81715930e-01 -4.35271174e-01
   6.96545187e-03 -3.14920694e-02  6.68095276e-02 -4.80823331e-02
  -6.31290674e-02 -3.71542796e-02  7.09072053e-02  1.87814527e-04
   3.60564701e-02  1.57249376e-01 -5.79431579e-02  1.11899242e-01
   1.60164083e-03 -1.48688303e-03  2.80462038e-02  1.28126130e-01
  -1.88029498e-01  7.59844109e-02 -1.16929881e-01 -1.13503054e-01
  -7.86915943e-02 -1.64985675e-02  3.36563699e-02  1.43312588e-01
  -1.31396633e-02 -6.98495135e-02 -1.68486610e-01 -7.05216676e-02
  -3.81701924e-02 -2.79842876e-02  6.21169806e-02 -1.20658055e-02
   6.70464933e-02 -1.33005947e-01 -5.43035492e-02  3.99411842e-02
   1.24570876e-01 -5.81699908e-02  4.01025452e-02 -8.67527425e-02
   2.89872233e-02 -2.08857246e-02 -1.50793735e-02 -1.31620690e-01
  -4.37300690e-02 -4.24181391e-03  6.59288317e-02  1.08546488e-01
  -1.29513845e-01 -1.13758417e-02 -1.48717584e-02  1.24239691e-01
  -1.41541228e-01 -1.43871263e-01 -1.60649810e-02  1.06767453e-01
   1.82359256e-02 -8.93316939e-02  4.70505841e-02  7.13567212e-02
  -1.42605335e-01 -1.55154228e-01  4.74664662e-03 -9.55367908e-02
  -1.47096694e-01 -1.62148997e-02  4.20931615e-02 -1.22974761e-01
  -1.17053911e-02 -1.24534123e-01 -4.13056053e-02  3.58022936e-02
  -7.05430582e-02  8.94400775e-02 -1.27706081e-01 -3.16902660e-02
  -8.57900232e-02  2.56960280e-02 -1.35843353e-02 -2.02073798e-01
  -1.09865069e-01 -9.63578522e-02  1.09564409e-01 -2.59546861e-02
  -1.51055709e-01  1.31067470e-01  4.60811555e-02 -7.00180903e-02
   7.15729743e-02  1.34937659e-01 -9.56965759e-02 -6.89694434e-02
  -2.75659505e-02  9.90703851e-02  7.03473613e-02  1.08655207e-01
   1.46452904e-01 -5.46595156e-02  1.18138082e-01  1.71536401e-01
   8.13846737e-02  8.07202831e-02  1.36917800e-01 -1.46720916e-01
   1.32443666e-01 -1.10005535e-01 -1.21543869e-01 -7.13541284e-02
   1.43524274e-01 -1.12665161e-01 -7.54717886e-02 -5.81038557e-02
   7.89909959e-02 -4.39374335e-02  1.51407495e-01 -6.08156621e-02
  -7.75621384e-02  1.10876210e-01  7.66733512e-02  7.90123716e-02
  -1.59188602e-02  1.07336432e-01  1.05652586e-01  1.18816398e-01
  -1.07277140e-01  2.78080925e-02  9.23997909e-02  1.39974713e-01
  -4.04072665e-02  9.16569382e-02 -1.15916982e-01 -4.42512259e-02
  -8.49118605e-02  1.17453836e-01 -9.89010334e-02 -2.54773218e-02
   2.72868779e-02 -9.70165059e-02 -1.14264555e-01  1.20516740e-01
   1.41001001e-01 -1.37846425e-01 -1.43413588e-01  5.41649945e-02
   8.26904625e-02 -1.37780696e-01  7.81086087e-02  1.46874070e-01
  -1.40907556e-01 -6.18102960e-02 -6.30312860e-02 -8.02079961e-02
   7.83013552e-02 -1.49477974e-01 -1.25867859e-01 -4.26628180e-02
  -9.66476575e-02  1.12714991e-01 -1.28802165e-01  3.43260244e-02]]
gru/gru_cell/recurrent_kernel:0
(80, 240)
[[-0.08148944  0.14454931  0.1661533  ...  0.04548891 -0.16319507
  -0.10235703]
 [-0.02667228  0.12343201  0.18709648 ...  0.04764188  0.02636969
  -0.03540672]
 [-0.07837163 -0.17548497 -0.2173415  ... -0.04380095 -0.06805738
  -0.05241269]
 ...
 [-0.0126868  -0.1442554  -0.06429008 ... -0.00546568  0.01066596
  -0.09595499]
 [ 0.03273106  0.06588382  0.11601592 ...  0.04612657 -0.07803195
   0.0065835 ]
 [ 0.01304918  0.11903436  0.08155218 ... -0.09256014  0.10526021
  -0.07935718]]
gru/gru_cell/bias:0
(2, 240)
[[-2.72310197e-01 -9.42103446e-01 -1.00214815e+00 -1.47541523e-01
  -1.00641739e+00 -7.65670538e-01 -6.27925336e-01 -7.44748592e-01
  -7.72266448e-01 -6.08202159e-01 -8.10000420e-01 -4.82350767e-01
  -5.69185674e-01 -1.06643367e+00 -6.20995164e-01 -1.01611710e+00
  -8.74209702e-01 -7.05462813e-01 -9.97473896e-01 -1.15669656e+00
  -6.86846852e-01 -8.23699951e-01 -7.95317709e-01 -8.90512645e-01
  -6.39914095e-01 -1.05269635e+00 -7.38387883e-01 -5.09807467e-01
  -7.85894215e-01 -7.87764788e-01 -7.16313779e-01 -9.13729250e-01
  -9.02684152e-01 -6.36051834e-01 -7.97264040e-01 -7.35147059e-01
  -6.64644420e-01 -7.53431559e-01 -6.86939955e-01 -8.91024411e-01
  -1.93185374e-01 -8.81424069e-01 -9.12742853e-01 -4.59634632e-01
  -9.06798542e-01 -4.85168010e-01 -9.37640071e-01 -7.11396039e-01
  -6.17812157e-01 -8.25061738e-01 -8.25138330e-01 -6.61325097e-01
  -8.81001472e-01 -7.48937368e-01 -8.01405370e-01 -3.11100185e-01
  -4.78789896e-01 -6.37972772e-01 -6.92446113e-01 -8.67134154e-01
  -7.45672464e-01 -9.05820727e-01 -7.09306598e-01 -6.82796419e-01
  -9.98502970e-01 -7.28373706e-01 -8.96289349e-01 -8.44106615e-01
  -6.66118145e-01 -7.31327415e-01 -9.21616316e-01 -7.14891136e-01
  -9.17775810e-01 -8.62668991e-01 -7.96712875e-01 -6.43887937e-01
  -8.72932434e-01 -8.70904922e-01 -8.54896724e-01 -4.40417290e-01
   4.55286028e-03 -4.25102264e-02 -2.96928324e-02 -2.19761580e-02
  -2.18830723e-03  7.50885671e-03 -3.09113283e-02 -3.77989300e-02
  -5.35893738e-02  1.16987517e-02 -2.32010949e-02 -9.65262670e-03
  -1.71567854e-02 -1.75814666e-02 -2.20779516e-02 -1.07442569e-02
  -6.66702958e-03 -3.91166806e-02  3.70606850e-03  2.08806098e-02
  -1.63352527e-02 -6.05750047e-02 -5.63303800e-03  1.57891698e-02
   1.04874102e-02 -9.52153280e-03 -1.32212741e-02 -1.75090060e-02
  -1.10411318e-03 -8.76533508e-04 -1.40428077e-02 -3.55926007e-02
  -5.44610918e-02 -2.47127768e-02  9.78397764e-03 -2.04611775e-02
  -5.10117337e-02 -1.35507789e-02 -1.50762480e-02 -3.01177539e-02
  -6.50145626e-03 -2.12076958e-02 -2.54791211e-02 -1.74536742e-02
  -7.96470605e-03 -7.39907986e-03 -1.55612761e-02 -3.83629510e-03
  -1.12055419e-02 -1.94253922e-02 -8.01499095e-03 -5.09384647e-02
  -1.71830095e-02  3.39481514e-03 -3.29338126e-02 -4.15733531e-02
  -2.17039324e-02 -1.15861604e-02 -2.03958265e-02  6.93029026e-03
   1.34845935e-02  9.88323428e-03 -2.33025150e-03 -6.53817058e-02
  -8.94158557e-02 -1.29697099e-02 -7.81883672e-02 -1.54201910e-02
   2.24912204e-02 -3.05594970e-02 -1.56462446e-01 -3.50431316e-02
  -4.54134308e-02  2.74531133e-02  1.28932577e-02 -6.55183718e-02
  -7.23937005e-02 -2.30000783e-02 -5.21999411e-03 -5.95085360e-02
   2.13819388e-02  1.77864861e-02 -2.20625438e-02  4.36469866e-03
   2.45653745e-02 -2.07327437e-02 -6.91936957e-03  1.44738341e-02
  -1.13688447e-02 -2.46006995e-02  1.69794187e-02  1.44256875e-02
   7.25804362e-03 -1.91031564e-02 -1.27894981e-02 -1.97596308e-02
  -2.57809293e-02  9.35257319e-03 -2.02887710e-02 -3.02527379e-02
  -1.44843142e-02 -1.32670263e-02 -2.56304983e-02  2.53702160e-02
  -2.00832915e-02  2.09403634e-02  1.93757713e-02  1.29297674e-02
  -2.42981110e-02  1.92206018e-02  1.36309415e-02  1.20525481e-02
  -1.38652241e-02  7.61667220e-03 -2.27226578e-02  1.17606884e-02
   1.14477659e-02 -1.69463791e-02 -1.44165205e-02 -1.84233449e-02
   2.00416637e-03 -1.85371991e-02 -1.75505877e-02 -2.23605912e-02
   1.75732151e-02 -5.07610291e-03 -1.60711482e-02 -2.28970051e-02
   8.41894746e-03 -1.66055728e-02  1.65143143e-02  1.03688128e-02
   1.45735927e-02 -1.96850449e-02  1.45517364e-02  5.14784222e-03
  -6.06783899e-03  1.59059186e-02  1.94407925e-02 -2.26798635e-02
  -2.54504364e-02  2.47061700e-02  2.51626913e-02 -1.03091663e-02
  -1.43654989e-02  2.20381785e-02 -1.55067500e-02 -2.46074498e-02
   2.43676603e-02  1.09484605e-02  7.82450754e-03  1.50124375e-02
  -1.42202014e-02  2.81954035e-02  2.14370154e-02  8.59601144e-03
   1.68563668e-02 -1.74149387e-02  2.38929577e-02 -6.09072903e-03]
 [-2.72310197e-01 -9.42103446e-01 -1.00214815e+00 -1.47541523e-01
  -1.00641739e+00 -7.65670538e-01 -6.27925336e-01 -7.44748592e-01
  -7.72266448e-01 -6.08202159e-01 -8.10000420e-01 -4.82350767e-01
  -5.69185674e-01 -1.06643367e+00 -6.20995164e-01 -1.01611710e+00
  -8.74209702e-01 -7.05462813e-01 -9.97473896e-01 -1.15669656e+00
  -6.86846852e-01 -8.23699951e-01 -7.95317709e-01 -8.90512645e-01
  -6.39914095e-01 -1.05269635e+00 -7.38387883e-01 -5.09807467e-01
  -7.85894215e-01 -7.87764788e-01 -7.16313779e-01 -9.13729250e-01
  -9.02684152e-01 -6.36051834e-01 -7.97264040e-01 -7.35147059e-01
  -6.64644420e-01 -7.53431559e-01 -6.86939955e-01 -8.91024411e-01
  -1.93185374e-01 -8.81424069e-01 -9.12742853e-01 -4.59634632e-01
  -9.06798542e-01 -4.85168010e-01 -9.37640071e-01 -7.11396039e-01
  -6.17812157e-01 -8.25061738e-01 -8.25138330e-01 -6.61325097e-01
  -8.81001472e-01 -7.48937368e-01 -8.01405370e-01 -3.11100185e-01
  -4.78789896e-01 -6.37972772e-01 -6.92446113e-01 -8.67134154e-01
  -7.45672464e-01 -9.05820727e-01 -7.09306598e-01 -6.82796419e-01
  -9.98502970e-01 -7.28373706e-01 -8.96289349e-01 -8.44106615e-01
  -6.66118145e-01 -7.31327415e-01 -9.21616316e-01 -7.14891136e-01
  -9.17775810e-01 -8.62668991e-01 -7.96712875e-01 -6.43887937e-01
  -8.72932434e-01 -8.70904922e-01 -8.54896724e-01 -4.40417290e-01
   4.55286028e-03 -4.25102264e-02 -2.96928324e-02 -2.19761580e-02
  -2.18830723e-03  7.50885671e-03 -3.09113283e-02 -3.77989300e-02
  -5.35893738e-02  1.16987517e-02 -2.32010949e-02 -9.65262670e-03
  -1.71567854e-02 -1.75814666e-02 -2.20779516e-02 -1.07442569e-02
  -6.66702958e-03 -3.91166806e-02  3.70606850e-03  2.08806098e-02
  -1.63352527e-02 -6.05750047e-02 -5.63303800e-03  1.57891698e-02
   1.04874102e-02 -9.52153280e-03 -1.32212741e-02 -1.75090060e-02
  -1.10411318e-03 -8.76533508e-04 -1.40428077e-02 -3.55926007e-02
  -5.44610918e-02 -2.47127768e-02  9.78397764e-03 -2.04611775e-02
  -5.10117337e-02 -1.35507789e-02 -1.50762480e-02 -3.01177539e-02
  -6.50145626e-03 -2.12076958e-02 -2.54791211e-02 -1.74536742e-02
  -7.96470605e-03 -7.39907986e-03 -1.55612761e-02 -3.83629510e-03
  -1.12055419e-02 -1.94253922e-02 -8.01499095e-03 -5.09384647e-02
  -1.71830095e-02  3.39481514e-03 -3.29338126e-02 -4.15733531e-02
  -2.17039324e-02 -1.15861604e-02 -2.03958265e-02  6.93029026e-03
   1.34845935e-02  9.88323428e-03 -2.33025150e-03 -6.53817058e-02
  -8.94158557e-02 -1.29697099e-02 -7.81883672e-02 -1.54201910e-02
   2.24912204e-02 -3.05594970e-02 -1.56462446e-01 -3.50431316e-02
  -4.54134308e-02  2.74531133e-02  1.28932577e-02 -6.55183718e-02
  -7.23937005e-02 -2.30000783e-02 -5.21999411e-03 -5.95085360e-02
   2.10953150e-02  1.62035991e-02 -1.95114035e-02  3.23229004e-03
   2.30916440e-02 -2.01860797e-02 -6.28478453e-03  1.35573391e-02
  -1.05089108e-02 -2.36797798e-02  1.64922401e-02  1.31164221e-02
   7.19862338e-03 -1.74026098e-02 -1.20933158e-02 -1.77496821e-02
  -2.51323245e-02  8.46167095e-03 -2.03733612e-02 -3.04075964e-02
  -1.44871520e-02 -1.17314439e-02 -2.48315651e-02  2.47729160e-02
  -2.00365707e-02  2.04026178e-02  1.97543874e-02  1.21627804e-02
  -2.35409904e-02  1.87112410e-02  1.30807394e-02  1.20768817e-02
  -1.21886497e-02  8.56494531e-03 -2.23394334e-02  1.06933741e-02
   1.12895221e-02 -1.63512379e-02 -1.36007993e-02 -1.74626336e-02
   1.94222969e-03 -1.74893122e-02 -1.61401667e-02 -2.10473593e-02
   1.70729998e-02 -5.28813200e-03 -1.42606655e-02 -2.18467563e-02
   9.16479621e-03 -1.56056853e-02  1.53184840e-02  9.93845146e-03
   1.49029624e-02 -1.96234230e-02  1.32106934e-02  4.81360033e-03
  -6.51845196e-03  1.56357214e-02  1.84588656e-02 -2.13746391e-02
  -2.50428878e-02  2.48658787e-02  2.38283295e-02 -9.13659856e-03
  -1.27296047e-02  2.14414727e-02 -1.30396532e-02 -2.35297717e-02
   2.43802797e-02  1.10281650e-02  6.28256099e-03  1.34239206e-02
  -1.33244907e-02  2.78469995e-02  2.15104893e-02  9.68219619e-03
   1.44644836e-02 -1.59927271e-02  2.29544509e-02 -6.51820702e-03]]
gru_1/gru_cell_1/kernel:0
(80, 300)
[[-0.14129572 -0.09625743 -0.03718992 ...  0.14518312 -0.01435743
   0.03968407]
 [ 0.07960249 -0.08214076  0.04737642 ... -0.01013374  0.02426402
  -0.12908371]
 [ 0.00306552  0.16927797  0.08389781 ... -0.06259317  0.032784
  -0.03507773]
 ...
 [ 0.12637974 -0.02065019 -0.07106052 ... -0.09968204  0.07310703
   0.08607987]
 [-0.0102425  -0.0234625  -0.04128932 ...  0.03788587  0.08344346
   0.0020272 ]
 [ 0.03426505 -0.13546552 -0.10076522 ...  0.05444747  0.09583905
   0.11110418]]
gru_1/gru_cell_1/recurrent_kernel:0
(100, 300)
[[-0.14602101 -0.07346704  0.03007105 ... -0.07765056 -0.06554186
   0.02484938]
 [ 0.01062202  0.05460455  0.05928507 ...  0.0048893  -0.0011367
   0.01576249]
 [ 0.01067038 -0.10637153 -0.11146414 ... -0.0218523  -0.06045779
  -0.01305496]
 ...
 [-0.17454012  0.05079242 -0.11194468 ...  0.01583825 -0.01314668
   0.01157296]
 [-0.00062238 -0.02838037 -0.07897782 ... -0.06556424 -0.03276358
   0.05234275]
 [ 0.12259091  0.08004322  0.10145976 ...  0.0010435  -0.02193098
   0.05280022]]
gru_1/gru_cell_1/bias:0
(2, 300)
[[ 1.64271519e-01  1.24839194e-01  9.47464257e-02 -5.69861569e-02
   6.81553930e-02  3.84145230e-02  1.92176193e-01  1.52527481e-01
   2.31218502e-01  5.14989672e-03  1.47397608e-01  3.28821152e-01
   7.60330409e-02  1.04659811e-01  3.49733382e-01  2.24093243e-01
   1.96649596e-01  2.22356711e-02  1.07956052e-01  1.99730009e-01
   1.05014227e-01  2.51263194e-02  2.19296336e-01  2.03299951e-02
   2.07316712e-01  7.16793016e-02  1.39018372e-02  1.13980450e-01
   2.49321848e-01  1.36884481e-01  5.63060418e-02  6.33834079e-02
   1.01294346e-01  1.87133938e-01  5.04696257e-02  1.26893908e-01
   1.48915112e-01  5.99092357e-02  1.07558832e-01  2.02964574e-01
   7.73886219e-02  1.48400694e-01  1.71220511e-01  1.12692326e-01
   7.51732960e-02  1.98370293e-01  1.86005041e-01  1.24414384e-01
   1.50827676e-01  5.45284301e-02  7.99432993e-02  6.57131374e-02
   1.34908944e-01  1.16472676e-01  1.55534074e-01  9.17977095e-02
   7.31532723e-02  2.69982159e-01  8.18485394e-02  1.30192503e-01
   1.34580538e-01  1.07605018e-01  7.40783140e-02  7.72524476e-02
   7.33867884e-02  6.62814006e-02  3.00634146e-01  1.35710835e-01
   1.75337881e-01 -2.93463506e-02  1.07627943e-01  1.92375079e-01
   9.57864970e-02  1.62620425e-01  9.61190239e-02  1.69865161e-01
   2.10219175e-01  1.58112332e-01  1.64945886e-01  1.91208109e-01
   1.06053628e-01  2.10396886e-01  7.86005259e-02  4.25737724e-02
   1.23474851e-01  5.94755635e-02  7.12919980e-02  5.84936254e-02
   5.95272928e-02  1.15886971e-01  1.16751999e-01  2.31448054e-01
   1.36691898e-01  7.44566843e-02  1.61762238e-01  1.77773625e-01
   8.03456828e-02  2.95575440e-01  1.07359745e-01  3.45106050e-02
  -1.09462805e-01 -6.72039809e-03 -6.76864460e-02 -2.88046319e-02
  -4.51190248e-02 -6.49076551e-02 -4.75523956e-02 -3.20056379e-02
  -3.76939587e-02 -1.20563649e-01 -8.15210938e-02 -7.52388462e-02
  -1.10968880e-01 -7.20765665e-02 -6.28686622e-02 -4.16582972e-02
  -6.90296888e-02 -1.50122255e-01 -8.67665559e-02 -5.56514002e-02
  -1.33990496e-01 -9.72597972e-02 -3.95725220e-02 -1.37083963e-01
  -7.84615129e-02 -8.95039290e-02 -5.55060357e-02 -1.22414567e-01
  -3.97869758e-02 -9.17304754e-02 -6.11187220e-02 -4.44868952e-02
  -4.39646579e-02 -5.64365126e-02 -6.40365258e-02 -4.95939627e-02
  -4.74029295e-02 -8.83216560e-02 -7.84531981e-02 -9.44306478e-02
  -1.01362355e-01 -2.65808646e-02 -4.12252732e-02 -2.70054583e-02
  -1.02830663e-01 -1.28287718e-01 -1.59979779e-02 -7.90115073e-02
  -7.23920017e-02 -1.02752499e-01 -2.02167649e-02 -5.32266907e-02
  -3.94694023e-02 -1.25696525e-01 -2.85713933e-02 -7.15555176e-02
  -1.10085316e-01 -4.05645594e-02  9.87316575e-03 -3.03698182e-02
  -4.13161144e-02  8.58322252e-03 -2.11331132e-03 -6.82625175e-02
  -7.26376399e-02 -7.06312060e-02 -1.30455121e-01 -8.92279744e-02
  -8.14022720e-02 -5.05066141e-02 -1.33959517e-01 -2.91814841e-02
  -4.85376343e-02 -6.76120669e-02 -1.06316641e-01 -7.21887797e-02
  -3.70509364e-02 -6.31468520e-02 -7.95163959e-02 -6.77946880e-02
  -5.77849299e-02 -2.68613528e-02 -5.84109649e-02 -2.86683571e-02
  -4.65031005e-02 -4.28792164e-02 -1.30556121e-01 -1.38843879e-01
  -6.88607171e-02 -5.13092875e-02 -9.48146358e-02 -6.69893399e-02
  -9.93098840e-02 -3.23702097e-02 -8.25199708e-02 -2.81448476e-02
  -8.42280909e-02 -6.63136095e-02 -2.15976369e-02 -8.07923302e-02
  -3.80791258e-03 -1.13297673e-03 -3.88788292e-03 -8.98547645e-04
  -4.26001195e-03  8.57378915e-03 -7.32158823e-03 -5.22357086e-03
  -8.50516651e-03 -4.04876797e-03 -7.70275947e-03  9.37290676e-03
   9.84709337e-03 -7.02817878e-03 -8.01125355e-03 -3.70038743e-03
   6.31695893e-03 -8.25458765e-03 -3.71265365e-03 -5.26309479e-03
   4.99384152e-03 -5.67785976e-03 -6.74509490e-03  7.59051228e-03
   8.02752655e-03  4.80542146e-03  2.45577493e-03 -6.17469940e-03
   7.08414614e-03  4.88289446e-03 -1.91076577e-03  5.35513740e-03
   7.49131385e-03  5.27083455e-03  5.52981207e-03  1.67572696e-03
  -5.92599530e-03  4.87454422e-03  2.44847871e-03  4.45912126e-03
   7.27237202e-03  4.16697236e-03 -3.57327028e-03 -6.88590924e-04
  -2.16959440e-03 -3.06550064e-03  3.25055514e-03 -8.68362840e-03
   2.97924387e-03 -3.32316477e-03  6.76918216e-03  1.06730629e-02
  -5.94970956e-03  6.14249986e-03  3.61268735e-03 -1.13549950e-02
  -7.34907668e-03  8.63877404e-03 -2.41600536e-03  4.23270138e-03
   4.54924256e-03  2.90250708e-03 -4.68869135e-03 -5.61157474e-03
  -5.61366137e-03  5.85610233e-03 -6.17565680e-03 -1.98750431e-03
   9.77773778e-03 -6.24441868e-03  5.51156048e-03 -6.53321203e-03
  -4.76206234e-03  7.97672011e-03  1.10021578e-02  2.20581749e-03
  -6.87553966e-03  4.30691242e-03 -1.15651358e-02  3.49180494e-03
   8.44548456e-03 -5.96623681e-03  6.35682512e-03  3.14853434e-03
  -5.27220545e-03 -5.81152318e-03 -3.18348268e-03 -4.56247153e-03
  -4.98634344e-03  3.63541720e-03 -1.11078639e-02  4.74261446e-03
   5.74883306e-03 -3.14489473e-03 -5.79979084e-03 -9.98889375e-03
   7.18121696e-03 -1.12155033e-02 -3.40357050e-03  5.65443374e-03]
 [ 1.64271519e-01  1.24839194e-01  9.47464257e-02 -5.69861569e-02
   6.81553930e-02  3.84145230e-02  1.92176193e-01  1.52527481e-01
   2.31218502e-01  5.14989672e-03  1.47397608e-01  3.28821152e-01
   7.60330409e-02  1.04659811e-01  3.49733382e-01  2.24093243e-01
   1.96649596e-01  2.22356711e-02  1.07956052e-01  1.99730009e-01
   1.05014227e-01  2.51263194e-02  2.19296336e-01  2.03299951e-02
   2.07316712e-01  7.16793016e-02  1.39018372e-02  1.13980450e-01
   2.49321848e-01  1.36884481e-01  5.63060418e-02  6.33834079e-02
   1.01294346e-01  1.87133938e-01  5.04696257e-02  1.26893908e-01
   1.48915112e-01  5.99092357e-02  1.07558832e-01  2.02964574e-01
   7.73886219e-02  1.48400694e-01  1.71220511e-01  1.12692326e-01
   7.51732960e-02  1.98370293e-01  1.86005041e-01  1.24414384e-01
   1.50827676e-01  5.45284301e-02  7.99432993e-02  6.57131374e-02
   1.34908944e-01  1.16472676e-01  1.55534074e-01  9.17977095e-02
   7.31532723e-02  2.69982159e-01  8.18485394e-02  1.30192503e-01
   1.34580538e-01  1.07605018e-01  7.40783140e-02  7.72524476e-02
   7.33867884e-02  6.62814006e-02  3.00634146e-01  1.35710835e-01
   1.75337881e-01 -2.93463506e-02  1.07627943e-01  1.92375079e-01
   9.57864970e-02  1.62620425e-01  9.61190239e-02  1.69865161e-01
   2.10219175e-01  1.58112332e-01  1.64945886e-01  1.91208109e-01
   1.06053628e-01  2.10396886e-01  7.86005259e-02  4.25737724e-02
   1.23474851e-01  5.94755635e-02  7.12919980e-02  5.84936254e-02
   5.95272928e-02  1.15886971e-01  1.16751999e-01  2.31448054e-01
   1.36691898e-01  7.44566843e-02  1.61762238e-01  1.77773625e-01
   8.03456828e-02  2.95575440e-01  1.07359745e-01  3.45106050e-02
  -1.09462805e-01 -6.72039809e-03 -6.76864460e-02 -2.88046319e-02
  -4.51190248e-02 -6.49076551e-02 -4.75523956e-02 -3.20056379e-02
  -3.76939587e-02 -1.20563649e-01 -8.15210938e-02 -7.52388462e-02
  -1.10968880e-01 -7.20765665e-02 -6.28686622e-02 -4.16582972e-02
  -6.90296888e-02 -1.50122255e-01 -8.67665559e-02 -5.56514002e-02
  -1.33990496e-01 -9.72597972e-02 -3.95725220e-02 -1.37083963e-01
  -7.84615129e-02 -8.95039290e-02 -5.55060357e-02 -1.22414567e-01
  -3.97869758e-02 -9.17304754e-02 -6.11187220e-02 -4.44868952e-02
  -4.39646579e-02 -5.64365126e-02 -6.40365258e-02 -4.95939627e-02
  -4.74029295e-02 -8.83216560e-02 -7.84531981e-02 -9.44306478e-02
  -1.01362355e-01 -2.65808646e-02 -4.12252732e-02 -2.70054583e-02
  -1.02830663e-01 -1.28287718e-01 -1.59979779e-02 -7.90115073e-02
  -7.23920017e-02 -1.02752499e-01 -2.02167649e-02 -5.32266907e-02
  -3.94694023e-02 -1.25696525e-01 -2.85713933e-02 -7.15555176e-02
  -1.10085316e-01 -4.05645594e-02  9.87316575e-03 -3.03698182e-02
  -4.13161144e-02  8.58322252e-03 -2.11331132e-03 -6.82625175e-02
  -7.26376399e-02 -7.06312060e-02 -1.30455121e-01 -8.92279744e-02
  -8.14022720e-02 -5.05066141e-02 -1.33959517e-01 -2.91814841e-02
  -4.85376343e-02 -6.76120669e-02 -1.06316641e-01 -7.21887797e-02
  -3.70509364e-02 -6.31468520e-02 -7.95163959e-02 -6.77946880e-02
  -5.77849299e-02 -2.68613528e-02 -5.84109649e-02 -2.86683571e-02
  -4.65031005e-02 -4.28792164e-02 -1.30556121e-01 -1.38843879e-01
  -6.88607171e-02 -5.13092875e-02 -9.48146358e-02 -6.69893399e-02
  -9.93098840e-02 -3.23702097e-02 -8.25199708e-02 -2.81448476e-02
  -8.42280909e-02 -6.63136095e-02 -2.15976369e-02 -8.07923302e-02
  -3.48598883e-03 -2.47182604e-03 -1.68882520e-03  5.76938502e-04
  -2.26233969e-03  6.04864070e-03 -8.63995682e-03 -6.22803112e-03
  -9.87577345e-03 -6.02820702e-03 -8.36251304e-03  9.20076948e-03
   1.15743661e-02 -7.75824767e-03 -6.71332004e-03 -3.26920813e-03
   7.16344779e-03 -8.35316628e-03 -1.09525230e-04 -6.11751387e-03
   5.20366663e-03 -5.50064398e-03 -8.06171633e-03  7.34710600e-03
   7.29970308e-03  5.92666212e-03  3.34183779e-03 -5.72695443e-03
   8.30578338e-03  3.91443679e-03 -2.54854816e-03  2.90095573e-03
   6.59660250e-03  6.11274410e-03  6.05368987e-03  1.57234282e-03
  -5.55867376e-03  2.14863638e-03  2.13182182e-03  4.95593576e-03
   7.37769110e-03  4.24669171e-03 -2.57888925e-03  3.74616531e-04
  -1.02367322e-03 -2.66914722e-03  2.17772881e-03 -7.85301067e-03
   3.44785699e-03 -4.34945431e-03  5.62282139e-03  9.31614544e-03
  -7.02710869e-03  5.71121741e-03  2.96112499e-03 -9.18281637e-03
  -6.65815780e-03  8.17680918e-03 -2.19445536e-03  1.22957816e-03
   1.96937984e-03  3.31494375e-03 -3.23986635e-03 -6.46103686e-03
  -5.02656819e-03  5.45314839e-03 -4.86700097e-03 -3.19157122e-03
   7.38618569e-03 -5.87899284e-03  6.72005769e-03 -7.61106098e-03
  -5.68186073e-03  9.08825081e-03  1.16173020e-02  3.10211047e-03
  -6.99675968e-03  3.10893683e-03 -1.30491219e-02  4.53670556e-03
   7.40848482e-03 -5.17894886e-03  4.95725404e-03  2.06052163e-03
  -6.31436612e-03 -6.38294220e-03 -2.29616184e-03 -5.79211581e-03
  -4.20122640e-03  3.54826427e-03 -1.06901415e-02  6.20262977e-03
   6.99620834e-03 -3.05688614e-03 -7.22322939e-03 -8.59075785e-03
   6.16361480e-03 -1.01432782e-02 -1.99936796e-03  6.85874000e-03]]
dense/kernel:0
(100, 1)
[[-0.16313222]
 [ 0.10289115]
 [-0.13288732]
 [-0.06616566]
 [-0.1023775 ]
 [ 0.07562942]
 [-0.13231339]
 [-0.20111357]
 [-0.09436438]
 [-0.10084979]
 [-0.1337391 ]
 [ 0.05438802]
 [ 0.10083813]
 [-0.10279022]
 [-0.05053188]
 [-0.11267775]
 [ 0.12782067]
 [-0.19275154]
 [-0.13551661]
 [-0.19269715]
 [ 0.14156084]
 [-0.1330702 ]
 [-0.14439215]
 [ 0.15576588]
 [ 0.07715114]
 [ 0.1647192 ]
 [ 0.17002209]
 [-0.13486743]
 [ 0.17384745]
 [ 0.1621119 ]
 [-0.16095102]
 [ 0.12450679]
 [ 0.07209596]
 [ 0.15505426]
 [ 0.18093508]
 [ 0.11211952]
 [-0.15259811]
 [ 0.07613486]
 [ 0.13367222]
 [ 0.20518504]
 [ 0.12012622]
 [ 0.17089519]
 [-0.15511565]
 [-0.0742607 ]
 [-0.15164928]
 [-0.18004645]
 [ 0.08950322]
 [-0.08245578]
 [ 0.09383157]
 [-0.13505882]
 [ 0.15609036]
 [ 0.09385733]
 [-0.16637559]
 [ 0.1247176 ]
 [ 0.15519312]
 [-0.08705079]
 [-0.16580907]
 [ 0.04652243]
 [ 0.0600476 ]
 [ 0.15046825]
 [ 0.05898356]
 [-0.05926451]
 [-0.0695389 ]
 [-0.14228284]
 [-0.14019278]
 [ 0.15845226]
 [-0.09925185]
 [-0.1491627 ]
 [ 0.05885064]
 [-0.1417404 ]
 [ 0.10490445]
 [-0.18395115]
 [-0.19207998]
 [ 0.12885147]
 [ 0.05933621]
 [ 0.1772697 ]
 [-0.11550672]
 [ 0.19415201]
 [-0.08112738]
 [ 0.15304981]
 [ 0.09244179]
 [-0.09046496]
 [ 0.10851988]
 [ 0.08629223]
 [-0.13892369]
 [-0.1752447 ]
 [-0.17804599]
 [-0.07940086]
 [-0.11113813]
 [ 0.15981631]
 [-0.06159481]
 [ 0.1950889 ]
 [ 0.16864432]
 [-0.18615879]
 [-0.1932346 ]
 [-0.08585235]
 [ 0.06576913]
 [-0.0493471 ]
 [-0.08783165]
 [ 0.15669557]]
dense/bias:0
(1,)
[0.16456038]
